2gram-#BEGIN#a -1.655379 0.574261 -0.714026 -0.148858 -0.0534275 -1.01101 0.181602 0.188114 -0.645085 0.702941
1gram-B#END# -2.655379 0.574261 -0.714026 -0.148858 -0.0534275 -1.01101 0.181602 0.188114 -0.645085 0.702941
1gram-c -3.655379 0.574261 -0.714026 -0.148858 -0.0534275 -1.01101 0.181602 0.188114 -0.645085 0.702941
1gram-D -4.655379 0.574261 -0.714026 -0.148858 -0.0534275 -1.01101 0.181602 0.188114 -0.645085 0.702941
2gram-ha -5.655379 0.574261 -0.714026 -0.148858 -0.0534275 -1.01101 0.181602 0.188114 -0.645085 0.702941
1gram-! -6.655379 0.574261 -0.714026 -0.148858 -0.0534275 -1.01101 0.181602 0.188114 -0.645085 0.702941
1gram-% -7.655379 0.574261 -0.714026 -0.148858 -0.0534275 -1.01101 0.181602 0.188114 -0.645085 0.702941
1gram-^ -8.655379 0.574261 -0.714026 -0.148858 -0.0534275 -1.01101 0.181602 0.188114 -0.645085 0.702941
1gram-张 -9.655379 0.574261 -0.714026 -0.148858 -0.0534275 -1.01101 0.181602 0.188114 -0.645085 0.702941
1gram-1 -10.655379 0.574261 -0.714026 -0.148858 -0.0534275 -1.01101 0.181602 0.188114 -0.645085 0.702941